{"w":[[[0.1657,0.1351,0.1581,0.6635,0.1519,0.2105,0.3698,0.3829,0.2331,0.313,0.1785,0.368,0.1602,0.1817,0.2855],[0.3995,0.2832,0.2372,0.2013,0.2362,0.4524,0.1713,0.3348,0.286,0.0688,0.2884,0.3088,0.3521,0.1589,0.2712],[0.2596,0.3223,0.171,0.2574,0.1543,0.3513,0.3433,0.1942,0.2705,0.18,0.2167,0.2518,0.4374,0.3527,0.2015],[0.2594,0.3453,0.2327,0.259,0.2595,0.2627,0.3333,0.3064,0.2766,0.1697,0.2644,0.2962,0.3711,0.344,0.2092],[0.2276,0.3283,0.1862,0.4346,0.171,0.2375,0.3649,0.1994,0.3287,0.3441,0.2286,0.2829,0.2653,0.3991,0.1623],[0.32,0.2037,0.1599,0.1679,0.1753,0.5759,0.3801,0.1366,0.5691,0.0624,0.2912,0.1676,0.3005,0.152,0.1833],[-0.0251,0.3277,-0.1559,0.6424,0.1194,0.022,0.5206,0.0789,0.2089,0.6754,0.1109,0.3274,0.2489,0.6607,0.1314],[0.0642,0.3303,0.0429,0.5686,0.1238,0.1405,0.3699,0.167,0.24,0.3836,0.1627,0.4811,0.2143,0.4558,0.0923],[0.1838,0.2656,0.0197,0.4313,0.1836,0.4045,0.3611,0.1909,0.297,0.4815,0.2771,0.1816,0.1048,0.3218,0.247],[-0.0844,0.6034,-0.2521,0.6173,0.1689,-0.549,0.3546,0.289,-0.3678,0.7483,0.0894,0.3576,0.5029,1.1072,0.1933],[0.3613,0.2145,0.2714,0.4194,0.1476,0.4173,0.3303,0.3091,0.4014,0.2714,0.2278,0.2587,0.2635,0.1453,0.2935],[0.2051,0.302,0.2059,0.2496,0.2714,0.1323,0.1189,0.3579,0.0886,0.104,0.26,0.313,0.4399,0.4139,0.3059],[-0.0538,0.2847,0.0738,0.5188,0.1567,0.3621,0.2929,-0.0403,0.1802,0.624,0.2793,0.1606,0.0267,0.3918,0.1676],[-0.0504,0.167,0.1045,0.8469,0.1548,0.0472,0.3212,0.3405,0.1156,0.4256,0.132,0.4976,0.0671,0.4341,0.2627],[0.0127,0.3611,-0.3018,0.5658,0.1458,0.2595,0.4016,-0.0162,0.0132,0.9369,0.237,0.2017,0.1638,0.6971,0.0716]],[[0.1255,-0.0114,0.1716,0.0921,0.2842,0.2544,0.5853,0.395,0.2759,0.2678,0.1208,-0.0897,0.5216,0.2409,0.6586],[-0.4539,-0.2686,-0.3484,-0.2082,-0.3952,-0.3114,-0.5899,-0.4895,-0.3782,-0.5185,-0.406,-0.2289,-0.3433,-0.4509,-0.559],[-0.0489,0.1009,0.1926,0.1322,0.1121,0.2445,0.1029,-0.0839,0.2408,0.1303,0.1014,0.1109,0.21,-0.1574,0.2954],[-0.0995,0.343,0.2642,0.2527,0.0847,0.2906,-0.119,0.0106,-0.0017,-0.0727,0.0857,0.2607,-0.2515,-0.2733,-0.1117],[0.2887,0.1706,-0.0292,0.0076,0.0021,0.2393,-0.2639,-0.1317,0.0585,-1.008,0.2961,-0.0873,-0.1084,0.0636,-0.391],[0.1753,0.0804,0.1486,0.1634,0.1051,-0.1167,0.1643,0.149,-0.1447,0.7598,0.0075,0.3799,-0.0767,0.3071,-0.1046],[0.2168,-0.1163,0.0116,0.0827,0.1854,-0.1309,0.5373,0.3001,0.1994,0.9235,0.0003,0.0644,0.1457,0.3894,0.5187],[-0.262,0.0443,-0.1216,-0.0547,-0.1651,-0.0651,-0.5889,-0.4225,-0.1953,-0.7229,-0.0214,-0.1454,-0.2318,-0.5419,-0.4425],[0.2354,0.0694,-0.0087,-0.0137,0.0728,-0.1904,0.2943,0.2048,0.2231,0.6357,0.0396,0.1682,0.3494,0.4471,0.5683],[0.239,0.3402,0.2173,0.2423,0.2096,0.3636,-0.0483,0.2031,0.192,-0.3326,0.2789,0.2119,0.1015,0.2003,-0.1986]]],"b":[[-0.1157,-0.0767,-0.0775,-0.0489,-0.088,-0.0906,-0.1619,-0.1368,-0.0997,-0.1626,-0.0743,-0.0951,-0.1318,-0.1534,-0.1615],[-0.2849,0.0437,-0.1879,-0.1675,-0.1284,-0.2029,-0.2558,-0.0223,-0.239,-0.2305]],"right":0.75,"rounds":80870}
